digraph Tree {
node [shape=box, style="filled, rounded", color="black", fontname="helvetica"] ;
edge [fontname="helvetica"] ;
0 [label="NumView <= 0.06\ngini = 0.5\nsamples = 408315\nvalue = [322994.71, 316757.03]", fillcolor="#fefdfb"] ;
1 [label="timeOfDay <= 0.42\ngini = 0.08\nsamples = 21022\nvalue = [12744.65, 284959.03]", fillcolor="#42a1e6"] ;
0 -> 1 [labeldistance=2.5, labelangle=45, headlabel="True"] ;
2 [label="interactionTime <= 0.0\ngini = 0.08\nsamples = 14024\nvalue = [8291.25, 204169.08]", fillcolor="#41a1e6"] ;
1 -> 2 ;
3 [label="NumOfEventsInJourney <= 0.05\ngini = 0.08\nsamples = 13683\nvalue = [8147.25, 195500.16]", fillcolor="#41a1e6"] ;
2 -> 3 ;
4 [label="maxPrice <= 0.0\ngini = 0.08\nsamples = 13635\nvalue = [8110.23, 195428.22]", fillcolor="#41a1e6"] ;
3 -> 4 ;
5 [label="gini = 0.0\nsamples = 19\nvalue = [16.73, 0.0]", fillcolor="#e58139"] ;
4 -> 5 ;
6 [label="weekday <= 0.92\ngini = 0.08\nsamples = 13616\nvalue = [8093.5, 195428.22]", fillcolor="#41a1e6"] ;
4 -> 6 ;
7 [label="(...)", fillcolor="#C0C0C0"] ;
6 -> 7 ;
152 [label="(...)", fillcolor="#C0C0C0"] ;
6 -> 152 ;
167 [label="maxPrice <= 0.01\ngini = 0.45\nsamples = 48\nvalue = [37.01, 71.94]", fillcolor="#9fcff2"] ;
3 -> 167 ;
168 [label="gini = 0.0\nsamples = 1\nvalue = [0.0, 71.94]", fillcolor="#399de5"] ;
167 -> 168 ;
169 [label="gini = 0.0\nsamples = 47\nvalue = [37.01, 0.0]", fillcolor="#e58139"] ;
167 -> 169 ;
170 [label="interactionTime <= 0.61\ngini = 0.03\nsamples = 341\nvalue = [144.0, 8668.91]", fillcolor="#3c9fe5"] ;
2 -> 170 ;
171 [label="weekday <= 0.58\ngini = 0.03\nsamples = 340\nvalue = [143.49, 8668.91]", fillcolor="#3c9fe5"] ;
170 -> 171 ;
172 [label="weekday <= 0.08\ngini = 0.02\nsamples = 119\nvalue = [46.14, 3740.94]", fillcolor="#3b9ee5"] ;
171 -> 172 ;
173 [label="(...)", fillcolor="#C0C0C0"] ;
172 -> 173 ;
188 [label="(...)", fillcolor="#C0C0C0"] ;
172 -> 188 ;
247 [label="InsessionView <= 0.02\ngini = 0.04\nsamples = 221\nvalue = [97.35, 4927.97]", fillcolor="#3d9fe6"] ;
171 -> 247 ;
248 [label="(...)", fillcolor="#C0C0C0"] ;
247 -> 248 ;
259 [label="(...)", fillcolor="#C0C0C0"] ;
247 -> 259 ;
262 [label="gini = 0.0\nsamples = 1\nvalue = [0.51, 0.0]", fillcolor="#e58139"] ;
170 -> 262 ;
263 [label="NumCart <= 0.06\ngini = 0.1\nsamples = 6998\nvalue = [4453.4, 80789.95]", fillcolor="#44a2e6"] ;
1 -> 263 ;
264 [label="gini = 0.0\nsamples = 1372\nvalue = [0.0, 76545.42]", fillcolor="#399de5"] ;
263 -> 264 ;
265 [label="interactionTime <= 0.0\ngini = 0.5\nsamples = 5626\nvalue = [4453.4, 4244.53]", fillcolor="#fef9f6"] ;
263 -> 265 ;
266 [label="gini = -0.0\nsamples = 5452\nvalue = [4369.23, 0.0]", fillcolor="#e58139"] ;
265 -> 266 ;
267 [label="NumCart <= 0.17\ngini = 0.04\nsamples = 174\nvalue = [84.17, 4244.53]", fillcolor="#3d9fe6"] ;
265 -> 267 ;
268 [label="gini = 0.0\nsamples = 60\nvalue = [0.0, 3669.0]", fillcolor="#399de5"] ;
267 -> 268 ;
269 [label="NumOfEventsInJourney <= 0.14\ngini = 0.22\nsamples = 114\nvalue = [84.17, 575.53]", fillcolor="#56abe9"] ;
267 -> 269 ;
270 [label="(...)", fillcolor="#C0C0C0"] ;
269 -> 270 ;
271 [label="(...)", fillcolor="#C0C0C0"] ;
269 -> 271 ;
274 [label="timeOfDay <= 0.25\ngini = 0.17\nsamples = 387293\nvalue = [310250.05, 31798.0]", fillcolor="#e88e4d"] ;
0 -> 274 [labeldistance=2.5, labelangle=-45, headlabel="False"] ;
275 [label="NumOfEventsInJourney <= 0.05\ngini = 0.21\nsamples = 142237\nvalue = [114022.95, 15719.15]", fillcolor="#e99254"] ;
274 -> 275 ;
276 [label="gini = -0.0\nsamples = 137557\nvalue = [110499.98, 0.0]", fillcolor="#e58139"] ;
275 -> 276 ;
277 [label="NumView <= 0.17\ngini = 0.3\nsamples = 4680\nvalue = [3522.97, 15719.15]", fillcolor="#65b3eb"] ;
275 -> 277 ;
278 [label="interactionTime <= 0.0\ngini = 0.08\nsamples = 1087\nvalue = [657.64, 14208.38]", fillcolor="#42a2e6"] ;
277 -> 278 ;
279 [label="gini = 0.0\nsamples = 52\nvalue = [37.52, 0.0]", fillcolor="#e58139"] ;
278 -> 279 ;
280 [label="weekday <= 0.58\ngini = 0.08\nsamples = 1035\nvalue = [620.12, 14208.38]", fillcolor="#42a1e6"] ;
278 -> 280 ;
281 [label="(...)", fillcolor="#C0C0C0"] ;
280 -> 281 ;
370 [label="(...)", fillcolor="#C0C0C0"] ;
280 -> 370 ;
435 [label="InsessionView <= 0.02\ngini = 0.45\nsamples = 3593\nvalue = [2865.33, 1510.76]", fillcolor="#f3c3a1"] ;
277 -> 435 ;
436 [label="weekday <= 0.92\ngini = 0.5\nsamples = 1623\nvalue = [1269.14, 1330.91]", fillcolor="#f6fafe"] ;
435 -> 436 ;
437 [label="(...)", fillcolor="#C0C0C0"] ;
436 -> 437 ;
542 [label="(...)", fillcolor="#C0C0C0"] ;
436 -> 542 ;
549 [label="NumOfEventsInJourney <= 0.23\ngini = 0.18\nsamples = 1970\nvalue = [1596.19, 179.85]", fillcolor="#e88f4f"] ;
435 -> 549 ;
550 [label="(...)", fillcolor="#C0C0C0"] ;
549 -> 550 ;
561 [label="(...)", fillcolor="#C0C0C0"] ;
549 -> 561 ;
586 [label="NumView <= 0.17\ngini = 0.14\nsamples = 245056\nvalue = [196227.1, 16078.85]", fillcolor="#e78b49"] ;
274 -> 586 ;
587 [label="weekday <= 0.92\ngini = 0.13\nsamples = 239322\nvalue = [191647.45, 14244.35]", fillcolor="#e78a48"] ;
586 -> 587 ;
588 [label="NumOfEventsInJourney <= 0.05\ngini = 0.11\nsamples = 200533\nvalue = [160550.69, 9855.94]", fillcolor="#e78945"] ;
587 -> 588 ;
589 [label="weekday <= 0.08\ngini = 0.0\nsamples = 199524\nvalue = [159881.9, 0.0]", fillcolor="#e58139"] ;
588 -> 589 ;
590 [label="(...)", fillcolor="#C0C0C0"] ;
589 -> 590 ;
591 [label="(...)", fillcolor="#C0C0C0"] ;
589 -> 591 ;
592 [label="maxPrice <= 0.0\ngini = 0.12\nsamples = 1009\nvalue = [668.8, 9855.94]", fillcolor="#46a4e7"] ;
588 -> 592 ;
593 [label="(...)", fillcolor="#C0C0C0"] ;
592 -> 593 ;
594 [label="(...)", fillcolor="#C0C0C0"] ;
592 -> 594 ;
669 [label="timeOfDay <= 0.42\ngini = 0.22\nsamples = 38789\nvalue = [31096.75, 4388.41]", fillcolor="#e99355"] ;
587 -> 669 ;
670 [label="interactionTime <= 0.0\ngini = 0.25\nsamples = 17244\nvalue = [13786.13, 2338.09]", fillcolor="#e9965b"] ;
669 -> 670 ;
671 [label="(...)", fillcolor="#C0C0C0"] ;
670 -> 671 ;
674 [label="(...)", fillcolor="#C0C0C0"] ;
670 -> 674 ;
723 [label="NumOfEventsInJourney <= 0.05\ngini = 0.19\nsamples = 21545\nvalue = [17310.62, 2050.32]", fillcolor="#e89050"] ;
669 -> 723 ;
724 [label="(...)", fillcolor="#C0C0C0"] ;
723 -> 724 ;
727 [label="(...)", fillcolor="#C0C0C0"] ;
723 -> 727 ;
750 [label="NumCart <= 0.06\ngini = 0.41\nsamples = 5734\nvalue = [4579.66, 1834.5]", fillcolor="#efb388"] ;
586 -> 750 ;
751 [label="timeOfDay <= 0.92\ngini = 0.35\nsamples = 5607\nvalue = [4491.43, 1330.91]", fillcolor="#eda674"] ;
750 -> 751 ;
752 [label="maxPrice <= 0.3\ngini = 0.31\nsamples = 5140\nvalue = [4107.6, 971.21]", fillcolor="#eb9f68"] ;
751 -> 752 ;
753 [label="(...)", fillcolor="#C0C0C0"] ;
752 -> 753 ;
832 [label="(...)", fillcolor="#C0C0C0"] ;
752 -> 832 ;
863 [label="maxPrice <= 0.12\ngini = 0.5\nsamples = 467\nvalue = [383.84, 359.71]", fillcolor="#fdf7f3"] ;
751 -> 863 ;
864 [label="(...)", fillcolor="#C0C0C0"] ;
863 -> 864 ;
877 [label="(...)", fillcolor="#C0C0C0"] ;
863 -> 877 ;
904 [label="NumOfEventsInJourney <= 0.23\ngini = 0.25\nsamples = 127\nvalue = [88.23, 503.59]", fillcolor="#5caeea"] ;
750 -> 904 ;
905 [label="gini = -0.0\nsamples = 91\nvalue = [73.01, 0.0]", fillcolor="#e58139"] ;
904 -> 905 ;
906 [label="InsessionView <= 0.05\ngini = 0.06\nsamples = 36\nvalue = [15.21, 503.59]", fillcolor="#3fa0e6"] ;
904 -> 906 ;
907 [label="(...)", fillcolor="#C0C0C0"] ;
906 -> 907 ;
952 [label="(...)", fillcolor="#C0C0C0"] ;
906 -> 952 ;
}